{
    "input_size": 6,
    "output_size": 8,
    "activation_name": "relu",
    "weights": [
        [
            -0.01699305,
            0.0026063547,
            0.0011577287,
            0.016300298,
            0.00086805644,
            -0.00432944
        ],
        [
            0.007535969,
            0.002407656,
            0.015349962,
            -0.006280703,
            0.0037046513,
            0.0037958412
        ],
        [
            0.005346973,
            0.012478646,
            0.014549986,
            0.0041485685,
            0.0057322416,
            -0.020815365
        ],
        [
            0.0072423946,
            -0.005170574,
            0.0014692784,
            0.01282202,
            -0.015280168,
            -0.0065972893
        ],
        [
            -0.007977548,
            -0.00056646555,
            0.00043678354,
            -0.009621849,
            0.013343014,
            -0.010849128
        ],
        [
            0.00014442702,
            -0.0042685857,
            -0.011606944,
            0.0109865945,
            -0.012608179,
            0.017364511
        ],
        [
            0.00040206008,
            0.004213644,
            -0.016435834,
            0.005316406,
            -0.011566254,
            0.0071862736
        ],
        [
            0.0040571606,
            0.02255553,
            0.008773603,
            0.010688954,
            0.0009595853,
            0.0035759818
        ]
    ],
    "bias": [
        [
            6.298588e-5
        ],
        [
            -0.010077301
        ],
        [
            -0.0034819571
        ],
        [
            0.0025837915
        ],
        [
            0.0027727818
        ],
        [
            0.013304308
        ],
        [
            -0.003755496
        ],
        [
            -0.013961354
        ]
    ]
}
